digraph Tree {
node [shape=box] ;
0 [label="X[0] <= 343.5\nmse = 1238.711\nsamples = 320\nvalue = 44.438"] ;
1 [label="X[1] <= 187.5\nmse = 414.626\nsamples = 285\nvalue = 34.972"] ;
0 -> 1 [labeldistance=2.5, labelangle=45, headlabel="True"] ;
2 [label="X[1] <= 108.5\nmse = 247.843\nsamples = 233\nvalue = 29.662"] ;
1 -> 2 ;
3 [label="X[9] <= 36.0\nmse = 118.324\nsamples = 127\nvalue = 24.724"] ;
2 -> 3 ;
4 [label="X[0] <= 91.5\nmse = 116.773\nsamples = 96\nvalue = 26.554"] ;
3 -> 4 ;
5 [label="X[0] <= 20.5\nmse = 78.7\nsamples = 73\nvalue = 23.981"] ;
4 -> 5 ;
6 [label="X[1] <= 7.5\nmse = 16.843\nsamples = 19\nvalue = 17.427"] ;
5 -> 6 ;
7 [label="X[2] <= 1.5\nmse = 2.692\nsamples = 7\nvalue = 13.96"] ;
6 -> 7 ;
8 [label="X[0] <= 6.0\nmse = 0.304\nsamples = 2\nvalue = 16.268"] ;
7 -> 8 ;
9 [label="mse = 0.0\nsamples = 1\nvalue = 15.717"] ;
8 -> 9 ;
10 [label="mse = 0.0\nsamples = 1\nvalue = 16.819"] ;
8 -> 10 ;
11 [label="X[7] <= 0.5\nmse = 0.663\nsamples = 5\nvalue = 13.037"] ;
7 -> 11 ;
12 [label="mse = 0.0\nsamples = 1\nvalue = 11.808"] ;
11 -> 12 ;
13 [label="X[3] <= 15.0\nmse = 0.358\nsamples = 4\nvalue = 13.344"] ;
11 -> 13 ;
14 [label="mse = 0.0\nsamples = 1\nvalue = 12.414"] ;
13 -> 14 ;
15 [label="X[4] <= 10.5\nmse = 0.093\nsamples = 3\nvalue = 13.654"] ;
13 -> 15 ;
16 [label="X[1] <= 4.5\nmse = 0.0\nsamples = 2\nvalue = 13.439"] ;
15 -> 16 ;
17 [label="mse = 0.0\nsamples = 1\nvalue = 13.433"] ;
16 -> 17 ;
18 [label="mse = -0.0\nsamples = 1\nvalue = 13.444"] ;
16 -> 18 ;
19 [label="mse = -0.0\nsamples = 1\nvalue = 14.084"] ;
15 -> 19 ;
20 [label="X[3] <= 43.0\nmse = 13.994\nsamples = 12\nvalue = 19.45"] ;
6 -> 20 ;
21 [label="X[3] <= 37.0\nmse = 4.997\nsamples = 8\nvalue = 18.118"] ;
20 -> 21 ;
22 [label="X[0] <= 19.0\nmse = 4.279\nsamples = 5\nvalue = 19.21"] ;
21 -> 22 ;
23 [label="X[3] <= 19.5\nmse = 0.652\nsamples = 4\nvalue = 20.18"] ;
22 -> 23 ;
24 [label="X[2] <= 2.5\nmse = 0.024\nsamples = 2\nvalue = 19.381"] ;
23 -> 24 ;
25 [label="mse = 0.0\nsamples = 1\nvalue = 19.225"] ;
24 -> 25 ;
26 [label="mse = 0.0\nsamples = 1\nvalue = 19.537"] ;
24 -> 26 ;
27 [label="X[0] <= 12.0\nmse = 0.004\nsamples = 2\nvalue = 20.978"] ;
23 -> 27 ;
28 [label="mse = 0.0\nsamples = 1\nvalue = 20.918"] ;
27 -> 28 ;
29 [label="mse = 0.0\nsamples = 1\nvalue = 21.038"] ;
27 -> 29 ;
30 [label="mse = -0.0\nsamples = 1\nvalue = 15.333"] ;
22 -> 30 ;
31 [label="X[4] <= 9.5\nmse = 0.887\nsamples = 3\nvalue = 16.297"] ;
21 -> 31 ;
32 [label="X[4] <= 6.0\nmse = 0.155\nsamples = 2\nvalue = 16.922"] ;
31 -> 32 ;
33 [label="mse = 0.0\nsamples = 1\nvalue = 16.529"] ;
32 -> 33 ;
34 [label="mse = -0.0\nsamples = 1\nvalue = 17.316"] ;
32 -> 34 ;
35 [label="mse = 0.0\nsamples = 1\nvalue = 15.045"] ;
31 -> 35 ;
36 [label="X[8] <= 0.5\nmse = 21.336\nsamples = 4\nvalue = 22.115"] ;
20 -> 36 ;
37 [label="mse = 0.0\nsamples = 1\nvalue = 16.279"] ;
36 -> 37 ;
38 [label="X[0] <= 17.0\nmse = 13.313\nsamples = 3\nvalue = 24.06"] ;
36 -> 38 ;
39 [label="X[5] <= 0.5\nmse = 0.393\nsamples = 2\nvalue = 26.614"] ;
38 -> 39 ;
40 [label="mse = 0.0\nsamples = 1\nvalue = 25.988"] ;
39 -> 40 ;
41 [label="mse = 0.0\nsamples = 1\nvalue = 27.241"] ;
39 -> 41 ;
42 [label="mse = 0.0\nsamples = 1\nvalue = 18.951"] ;
38 -> 42 ;
43 [label="X[3] <= 19.5\nmse = 80.037\nsamples = 54\nvalue = 26.287"] ;
5 -> 43 ;
44 [label="X[0] <= 71.0\nmse = 62.032\nsamples = 16\nvalue = 30.28"] ;
43 -> 44 ;
45 [label="X[0] <= 66.5\nmse = 49.289\nsamples = 12\nvalue = 32.951"] ;
44 -> 45 ;
46 [label="X[3] <= 4.0\nmse = 34.072\nsamples = 9\nvalue = 30.166"] ;
45 -> 46 ;
47 [label="mse = 0.0\nsamples = 1\nvalue = 41.419"] ;
46 -> 47 ;
48 [label="X[3] <= 17.5\nmse = 20.522\nsamples = 8\nvalue = 28.759"] ;
46 -> 48 ;
49 [label="X[8] <= 1.0\nmse = 7.8\nsamples = 7\nvalue = 30.158"] ;
48 -> 49 ;
50 [label="mse = 0.0\nsamples = 1\nvalue = 36.142"] ;
49 -> 50 ;
51 [label="X[3] <= 10.5\nmse = 2.137\nsamples = 6\nvalue = 29.16"] ;
49 -> 51 ;
52 [label="X[2] <= 2.0\nmse = 0.588\nsamples = 3\nvalue = 30.314"] ;
51 -> 52 ;
53 [label="X[0] <= 43.5\nmse = 0.05\nsamples = 2\nvalue = 29.788"] ;
52 -> 53 ;
54 [label="mse = 0.0\nsamples = 1\nvalue = 30.012"] ;
53 -> 54 ;
55 [label="mse = 0.0\nsamples = 1\nvalue = 29.564"] ;
53 -> 55 ;
56 [label="mse = 0.0\nsamples = 1\nvalue = 31.367"] ;
52 -> 56 ;
57 [label="X[4] <= 9.5\nmse = 1.023\nsamples = 3\nvalue = 28.007"] ;
51 -> 57 ;
58 [label="mse = 0.0\nsamples = 1\nvalue = 29.403"] ;
57 -> 58 ;
59 [label="X[2] <= 1.0\nmse = 0.073\nsamples = 2\nvalue = 27.309"] ;
57 -> 59 ;
60 [label="mse = 0.0\nsamples = 1\nvalue = 27.578"] ;
59 -> 60 ;
61 [label="mse = 0.0\nsamples = 1\nvalue = 27.039"] ;
59 -> 61 ;
62 [label="mse = -0.0\nsamples = 1\nvalue = 18.967"] ;
48 -> 62 ;
63 [label="X[2] <= 0.5\nmse = 1.826\nsamples = 3\nvalue = 41.308"] ;
45 -> 63 ;
64 [label="mse = 0.0\nsamples = 1\nvalue = 39.609"] ;
63 -> 64 ;
65 [label="X[8] <= 1.5\nmse = 0.574\nsamples = 2\nvalue = 42.158"] ;
63 -> 65 ;
66 [label="mse = 0.0\nsamples = 1\nvalue = 42.915"] ;
65 -> 66 ;
67 [label="mse = 0.0\nsamples = 1\nvalue = 41.4"] ;
65 -> 67 ;
68 [label="X[4] <= 7.5\nmse = 14.624\nsamples = 4\nvalue = 22.266"] ;
44 -> 68 ;
69 [label="mse = 0.0\nsamples = 1\nvalue = 27.47"] ;
68 -> 69 ;
70 [label="X[0] <= 73.0\nmse = 7.461\nsamples = 3\nvalue = 20.531"] ;
68 -> 70 ;
71 [label="mse = 0.0\nsamples = 1\nvalue = 24.05"] ;
70 -> 71 ;
72 [label="X[5] <= 0.5\nmse = 1.902\nsamples = 2\nvalue = 18.771"] ;
70 -> 72 ;
73 [label="mse = 0.0\nsamples = 1\nvalue = 17.392"] ;
72 -> 73 ;
74 [label="mse = -0.0\nsamples = 1\nvalue = 20.15"] ;
72 -> 74 ;
75 [label="X[0] <= 53.5\nmse = 78.076\nsamples = 38\nvalue = 24.605"] ;
43 -> 75 ;
76 [label="X[0] <= 45.5\nmse = 56.429\nsamples = 21\nvalue = 28.024"] ;
75 -> 76 ;
77 [label="X[0] <= 42.5\nmse = 39.522\nsamples = 16\nvalue = 25.572"] ;
76 -> 77 ;
78 [label="X[1] <= 21.5\nmse = 27.016\nsamples = 14\nvalue = 27.078"] ;
77 -> 78 ;
79 [label="X[3] <= 29.0\nmse = 6.708\nsamples = 5\nvalue = 22.593"] ;
78 -> 79 ;
80 [label="X[6] <= 0.5\nmse = 5.148\nsamples = 2\nvalue = 20.305"] ;
79 -> 80 ;
81 [label="mse = 0.0\nsamples = 1\nvalue = 18.036"] ;
80 -> 81 ;
82 [label="mse = -0.0\nsamples = 1\nvalue = 22.574"] ;
80 -> 82 ;
83 [label="X[8] <= 1.5\nmse = 1.932\nsamples = 3\nvalue = 24.118"] ;
79 -> 83 ;
84 [label="mse = 0.0\nsamples = 1\nvalue = 25.936"] ;
83 -> 84 ;
85 [label="X[0] <= 28.0\nmse = 0.42\nsamples = 2\nvalue = 23.209"] ;
83 -> 85 ;
86 [label="mse = 0.0\nsamples = 1\nvalue = 23.857"] ;
85 -> 86 ;
87 [label="mse = 0.0\nsamples = 1\nvalue = 22.561"] ;
85 -> 87 ;
88 [label="X[0] <= 40.5\nmse = 20.912\nsamples = 9\nvalue = 29.57"] ;
78 -> 88 ;
89 [label="X[0] <= 36.0\nmse = 17.438\nsamples = 7\nvalue = 28.121"] ;
88 -> 89 ;
90 [label="X[0] <= 32.5\nmse = 1.166\nsamples = 4\nvalue = 31.238"] ;
89 -> 90 ;
91 [label="X[0] <= 27.5\nmse = 0.304\nsamples = 3\nvalue = 30.679"] ;
90 -> 91 ;
92 [label="mse = 0.0\nsamples = 1\nvalue = 30.002"] ;
91 -> 92 ;
93 [label="X[7] <= 0.5\nmse = 0.113\nsamples = 2\nvalue = 31.018"] ;
91 -> 93 ;
94 [label="mse = 0.0\nsamples = 1\nvalue = 30.682"] ;
93 -> 94 ;
95 [label="mse = 0.0\nsamples = 1\nvalue = 31.353"] ;
93 -> 95 ;
96 [label="mse = 0.0\nsamples = 1\nvalue = 32.916"] ;
90 -> 96 ;
97 [label="X[5] <= 0.5\nmse = 8.909\nsamples = 3\nvalue = 23.966"] ;
89 -> 97 ;
98 [label="mse = 0.0\nsamples = 1\nvalue = 20.088"] ;
97 -> 98 ;
99 [label="X[2] <= 2.0\nmse = 2.087\nsamples = 2\nvalue = 25.904"] ;
97 -> 99 ;
100 [label="mse = 0.0\nsamples = 1\nvalue = 24.46"] ;
99 -> 100 ;
101 [label="mse = 0.0\nsamples = 1\nvalue = 27.349"] ;
99 -> 101 ;
102 [label="X[1] <= 35.0\nmse = 0.017\nsamples = 2\nvalue = 34.64"] ;
88 -> 102 ;
103 [label="mse = 0.0\nsamples = 1\nvalue = 34.772"] ;
102 -> 103 ;
104 [label="mse = -0.0\nsamples = 1\nvalue = 34.509"] ;
102 -> 104 ;
105 [label="X[3] <= 43.0\nmse = 0.103\nsamples = 2\nvalue = 15.032"] ;
77 -> 105 ;
106 [label="mse = 0.0\nsamples = 1\nvalue = 15.354"] ;
105 -> 106 ;
107 [label="mse = 0.0\nsamples = 1\nvalue = 14.711"] ;
105 -> 107 ;
108 [label="X[2] <= 2.5\nmse = 29.731\nsamples = 5\nvalue = 35.871"] ;
76 -> 108 ;
109 [label="X[0] <= 46.5\nmse = 5.366\nsamples = 3\nvalue = 31.905"] ;
108 -> 109 ;
110 [label="mse = 0.0\nsamples = 1\nvalue = 35.177"] ;
109 -> 110 ;
111 [label="X[7] <= 0.5\nmse = 0.019\nsamples = 2\nvalue = 30.269"] ;
109 -> 111 ;
112 [label="mse = 0.0\nsamples = 1\nvalue = 30.132"] ;
111 -> 112 ;
113 [label="mse = 0.0\nsamples = 1\nvalue = 30.406"] ;
111 -> 113 ;
114 [label="X[0] <= 50.5\nmse = 7.306\nsamples = 2\nvalue = 41.819"] ;
108 -> 114 ;
115 [label="mse = 0.0\nsamples = 1\nvalue = 39.116"] ;
114 -> 115 ;
116 [label="mse = -0.0\nsamples = 1\nvalue = 44.522"] ;
114 -> 116 ;
117 [label="X[0] <= 61.0\nmse = 72.534\nsamples = 17\nvalue = 20.381"] ;
75 -> 117 ;
118 [label="X[1] <= 44.5\nmse = 2.907\nsamples = 5\nvalue = 12.513"] ;
117 -> 118 ;
119 [label="X[4] <= 10.0\nmse = 0.384\nsamples = 3\nvalue = 11.236"] ;
118 -> 119 ;
120 [label="X[7] <= 0.5\nmse = 0.005\nsamples = 2\nvalue = 11.672"] ;
119 -> 120 ;
121 [label="mse = 0.0\nsamples = 1\nvalue = 11.741"] ;
120 -> 121 ;
122 [label="mse = -0.0\nsamples = 1\nvalue = 11.603"] ;
120 -> 122 ;
123 [label="mse = 0.0\nsamples = 1\nvalue = 10.363"] ;
119 -> 123 ;
124 [label="X[0] <= 58.5\nmse = 0.569\nsamples = 2\nvalue = 14.43"] ;
118 -> 124 ;
125 [label="mse = 0.0\nsamples = 1\nvalue = 13.676"] ;
124 -> 125 ;
126 [label="mse = -0.0\nsamples = 1\nvalue = 15.184"] ;
124 -> 126 ;
127 [label="X[4] <= 8.5\nmse = 65.004\nsamples = 12\nvalue = 23.66"] ;
117 -> 127 ;
128 [label="X[0] <= 82.0\nmse = 80.885\nsamples = 4\nvalue = 29.456"] ;
127 -> 128 ;
129 [label="X[1] <= 64.5\nmse = 19.693\nsamples = 3\nvalue = 24.762"] ;
128 -> 129 ;
130 [label="X[8] <= 1.0\nmse = 2.801\nsamples = 2\nvalue = 21.776"] ;
129 -> 130 ;
131 [label="mse = 0.0\nsamples = 1\nvalue = 20.103"] ;
130 -> 131 ;
132 [label="mse = 0.0\nsamples = 1\nvalue = 23.45"] ;
130 -> 132 ;
133 [label="mse = -0.0\nsamples = 1\nvalue = 30.733"] ;
129 -> 133 ;
134 [label="mse = 0.0\nsamples = 1\nvalue = 43.54"] ;
128 -> 134 ;
135 [label="X[2] <= 3.5\nmse = 31.861\nsamples = 8\nvalue = 20.761"] ;
127 -> 135 ;
136 [label="X[5] <= 0.5\nmse = 4.336\nsamples = 5\nvalue = 16.605"] ;
135 -> 136 ;
137 [label="X[3] <= 44.5\nmse = 0.452\nsamples = 3\nvalue = 15.079"] ;
136 -> 137 ;
138 [label="X[4] <= 11.0\nmse = 0.006\nsamples = 2\nvalue = 15.552"] ;
137 -> 138 ;
139 [label="mse = 0.0\nsamples = 1\nvalue = 15.629"] ;
138 -> 139 ;
140 [label="mse = 0.0\nsamples = 1\nvalue = 15.476"] ;
138 -> 140 ;
141 [label="mse = 0.0\nsamples = 1\nvalue = 14.132"] ;
137 -> 141 ;
142 [label="X[3] <= 37.0\nmse = 1.427\nsamples = 2\nvalue = 18.894"] ;
136 -> 142 ;
143 [label="mse = 0.0\nsamples = 1\nvalue = 20.089"] ;
142 -> 143 ;
144 [label="mse = 0.0\nsamples = 1\nvalue = 17.7"] ;
142 -> 144 ;
145 [label="X[3] <= 25.5\nmse = 0.972\nsamples = 3\nvalue = 27.688"] ;
135 -> 145 ;
146 [label="mse = 0.0\nsamples = 1\nvalue = 28.941"] ;
145 -> 146 ;
147 [label="X[2] <= 4.5\nmse = 0.28\nsamples = 2\nvalue = 27.061"] ;
145 -> 147 ;
148 [label="mse = 0.0\nsamples = 1\nvalue = 27.59"] ;
147 -> 148 ;
149 [label="mse = -0.0\nsamples = 1\nvalue = 26.532"] ;
147 -> 149 ;
150 [label="X[9] <= 12.0\nmse = 149.906\nsamples = 23\nvalue = 34.72"] ;
4 -> 150 ;
151 [label="X[4] <= 6.5\nmse = 85.059\nsamples = 10\nvalue = 45.925"] ;
150 -> 151 ;
152 [label="X[9] <= 5.5\nmse = 43.5\nsamples = 3\nvalue = 54.257"] ;
151 -> 152 ;
153 [label="X[3] <= 47.5\nmse = 2.636\nsamples = 2\nvalue = 58.826"] ;
152 -> 153 ;
154 [label="mse = 0.0\nsamples = 1\nvalue = 60.449"] ;
153 -> 154 ;
155 [label="mse = 0.0\nsamples = 1\nvalue = 57.202"] ;
153 -> 155 ;
156 [label="mse = -0.0\nsamples = 1\nvalue = 45.12"] ;
152 -> 156 ;
157 [label="X[9] <= 3.5\nmse = 60.364\nsamples = 7\nvalue = 42.354"] ;
151 -> 157 ;
158 [label="X[1] <= 92.5\nmse = 44.903\nsamples = 5\nvalue = 45.702"] ;
157 -> 158 ;
159 [label="X[0] <= 93.0\nmse = 36.644\nsamples = 4\nvalue = 43.728"] ;
158 -> 159 ;
160 [label="mse = 0.0\nsamples = 1\nvalue = 53.319"] ;
159 -> 160 ;
161 [label="X[3] <= 53.5\nmse = 7.973\nsamples = 3\nvalue = 40.531"] ;
159 -> 161 ;
162 [label="X[0] <= 98.0\nmse = 0.303\nsamples = 2\nvalue = 38.56"] ;
161 -> 162 ;
163 [label="mse = 0.0\nsamples = 1\nvalue = 38.009"] ;
162 -> 163 ;
164 [label="mse = 0.0\nsamples = 1\nvalue = 39.11"] ;
162 -> 164 ;
165 [label="mse = 0.0\nsamples = 1\nvalue = 44.473"] ;
161 -> 165 ;
166 [label="mse = -0.0\nsamples = 1\nvalue = 53.598"] ;
158 -> 166 ;
167 [label="X[0] <= 107.5\nmse = 0.934\nsamples = 2\nvalue = 33.984"] ;
157 -> 167 ;
168 [label="mse = 0.0\nsamples = 1\nvalue = 33.017"] ;
167 -> 168 ;
169 [label="mse = 0.0\nsamples = 1\nvalue = 34.95"] ;
167 -> 169 ;
170 [label="X[1] <= 83.5\nmse = 28.937\nsamples = 13\nvalue = 26.102"] ;
150 -> 170 ;
171 [label="X[0] <= 96.0\nmse = 10.671\nsamples = 4\nvalue = 20.723"] ;
170 -> 171 ;
172 [label="mse = 0.0\nsamples = 1\nvalue = 15.866"] ;
171 -> 172 ;
173 [label="X[3] <= 5.5\nmse = 3.745\nsamples = 3\nvalue = 22.342"] ;
171 -> 173 ;
174 [label="mse = 0.0\nsamples = 1\nvalue = 25.078"] ;
173 -> 174 ;
175 [label="X[7] <= 0.5\nmse = 0.001\nsamples = 2\nvalue = 20.974"] ;
173 -> 175 ;
176 [label="mse = 0.0\nsamples = 1\nvalue = 20.936"] ;
175 -> 176 ;
177 [label="mse = -0.0\nsamples = 1\nvalue = 21.011"] ;
175 -> 177 ;
178 [label="X[3] <= 50.0\nmse = 18.482\nsamples = 9\nvalue = 28.492"] ;
170 -> 178 ;
179 [label="X[0] <= 130.5\nmse = 7.951\nsamples = 7\nvalue = 30.131"] ;
178 -> 179 ;
180 [label="X[7] <= 0.5\nmse = 1.743\nsamples = 6\nvalue = 29.093"] ;
179 -> 180 ;
181 [label="X[2] <= 1.5\nmse = 0.648\nsamples = 2\nvalue = 30.53"] ;
180 -> 181 ;
182 [label="mse = 0.0\nsamples = 1\nvalue = 29.725"] ;
181 -> 182 ;
183 [label="mse = 0.0\nsamples = 1\nvalue = 31.335"] ;
181 -> 183 ;
184 [label="X[4] <= 8.5\nmse = 0.742\nsamples = 4\nvalue = 28.375"] ;
180 -> 184 ;
185 [label="X[1] <= 95.5\nmse = 0.204\nsamples = 3\nvalue = 27.932"] ;
184 -> 185 ;
186 [label="X[2] <= 2.0\nmse = 0.068\nsamples = 2\nvalue = 28.213"] ;
185 -> 186 ;
187 [label="mse = 0.0\nsamples = 1\nvalue = 27.952"] ;
186 -> 187 ;
188 [label="mse = -0.0\nsamples = 1\nvalue = 28.474"] ;
186 -> 188 ;
189 [label="mse = 0.0\nsamples = 1\nvalue = 27.369"] ;
185 -> 189 ;
190 [label="mse = 0.0\nsamples = 1\nvalue = 29.705"] ;
184 -> 190 ;
191 [label="mse = -0.0\nsamples = 1\nvalue = 36.355"] ;
179 -> 191 ;
192 [label="X[1] <= 90.5\nmse = 13.054\nsamples = 2\nvalue = 22.757"] ;
178 -> 192 ;
193 [label="mse = 0.0\nsamples = 1\nvalue = 26.37"] ;
192 -> 193 ;
194 [label="mse = -0.0\nsamples = 1\nvalue = 19.144"] ;
192 -> 194 ;
195 [label="X[4] <= 3.5\nmse = 80.653\nsamples = 31\nvalue = 19.058"] ;
3 -> 195 ;
196 [label="X[4] <= 2.5\nmse = 225.075\nsamples = 2\nvalue = 39.316"] ;
195 -> 196 ;
197 [label="mse = 0.0\nsamples = 1\nvalue = 24.314"] ;
196 -> 197 ;
198 [label="mse = 0.0\nsamples = 1\nvalue = 54.319"] ;
196 -> 198 ;
199 [label="X[6] <= 0.5\nmse = 40.437\nsamples = 29\nvalue = 17.661"] ;
195 -> 199 ;
200 [label="X[4] <= 10.5\nmse = 28.433\nsamples = 23\nvalue = 16.215"] ;
199 -> 200 ;
201 [label="X[9] <= 89.5\nmse = 27.247\nsamples = 16\nvalue = 18.176"] ;
200 -> 201 ;
202 [label="X[0] <= 123.5\nmse = 22.061\nsamples = 14\nvalue = 19.241"] ;
201 -> 202 ;
203 [label="X[9] <= 41.0\nmse = 4.128\nsamples = 7\nvalue = 15.982"] ;
202 -> 203 ;
204 [label="mse = 0.0\nsamples = 1\nvalue = 19.588"] ;
203 -> 204 ;
205 [label="X[4] <= 9.5\nmse = 2.288\nsamples = 6\nvalue = 15.381"] ;
203 -> 205 ;
206 [label="X[9] <= 62.5\nmse = 0.285\nsamples = 4\nvalue = 14.415"] ;
205 -> 206 ;
207 [label="X[9] <= 49.0\nmse = 0.07\nsamples = 2\nvalue = 14.86"] ;
206 -> 207 ;
208 [label="mse = 0.0\nsamples = 1\nvalue = 14.595"] ;
207 -> 208 ;
209 [label="mse = 0.0\nsamples = 1\nvalue = 15.125"] ;
207 -> 209 ;
210 [label="X[1] <= 92.0\nmse = 0.104\nsamples = 2\nvalue = 13.97"] ;
206 -> 210 ;
211 [label="mse = 0.0\nsamples = 1\nvalue = 13.647"] ;
210 -> 211 ;
212 [label="mse = 0.0\nsamples = 1\nvalue = 14.292"] ;
210 -> 212 ;
213 [label="X[0] <= 118.0\nmse = 0.691\nsamples = 2\nvalue = 17.313"] ;
205 -> 213 ;
214 [label="mse = 0.0\nsamples = 1\nvalue = 16.482"] ;
213 -> 214 ;
215 [label="mse = 0.0\nsamples = 1\nvalue = 18.145"] ;
213 -> 215 ;
216 [label="X[2] <= 2.0\nmse = 18.75\nsamples = 7\nvalue = 22.5"] ;
202 -> 216 ;
217 [label="X[0] <= 135.5\nmse = 10.754\nsamples = 3\nvalue = 19.474"] ;
216 -> 217 ;
218 [label="mse = 0.0\nsamples = 1\nvalue = 14.891"] ;
217 -> 218 ;
219 [label="X[3] <= 14.5\nmse = 0.376\nsamples = 2\nvalue = 21.766"] ;
217 -> 219 ;
220 [label="mse = 0.0\nsamples = 1\nvalue = 22.379"] ;
219 -> 220 ;
221 [label="mse = -0.0\nsamples = 1\nvalue = 21.153"] ;
219 -> 221 ;
222 [label="X[9] <= 71.0\nmse = 12.73\nsamples = 4\nvalue = 24.77"] ;
216 -> 222 ;
223 [label="X[5] <= 0.5\nmse = 3.449\nsamples = 3\nvalue = 26.608"] ;
222 -> 223 ;
224 [label="X[4] <= 7.5\nmse = 0.409\nsamples = 2\nvalue = 27.868"] ;
223 -> 224 ;
225 [label="mse = 0.0\nsamples = 1\nvalue = 27.229"] ;
224 -> 225 ;
226 [label="mse = 0.0\nsamples = 1\nvalue = 28.508"] ;
224 -> 226 ;
227 [label="mse = 0.0\nsamples = 1\nvalue = 24.088"] ;
223 -> 227 ;
228 [label="mse = 0.0\nsamples = 1\nvalue = 19.253"] ;
222 -> 228 ;
229 [label="X[9] <= 103.0\nmse = 0.017\nsamples = 2\nvalue = 10.72"] ;
201 -> 229 ;
230 [label="mse = 0.0\nsamples = 1\nvalue = 10.588"] ;
229 -> 230 ;
231 [label="mse = 0.0\nsamples = 1\nvalue = 10.852"] ;
229 -> 231 ;
232 [label="X[9] <= 93.5\nmse = 2.276\nsamples = 7\nvalue = 11.734"] ;
200 -> 232 ;
233 [label="X[2] <= 0.5\nmse = 0.382\nsamples = 5\nvalue = 10.859"] ;
232 -> 233 ;
234 [label="mse = 0.0\nsamples = 1\nvalue = 12.068"] ;
233 -> 234 ;
235 [label="X[9] <= 74.5\nmse = 0.02\nsamples = 4\nvalue = 10.557"] ;
233 -> 235 ;
236 [label="X[1] <= 82.0\nmse = 0.006\nsamples = 2\nvalue = 10.428"] ;
235 -> 236 ;
237 [label="mse = 0.0\nsamples = 1\nvalue = 10.503"] ;
236 -> 237 ;
238 [label="mse = 0.0\nsamples = 1\nvalue = 10.354"] ;
236 -> 238 ;
239 [label="X[5] <= 0.5\nmse = 0.003\nsamples = 2\nvalue = 10.685"] ;
235 -> 239 ;
240 [label="mse = 0.0\nsamples = 1\nvalue = 10.635"] ;
239 -> 240 ;
241 [label="mse = 0.0\nsamples = 1\nvalue = 10.735"] ;
239 -> 241 ;
242 [label="X[8] <= 1.0\nmse = 0.311\nsamples = 2\nvalue = 13.922"] ;
232 -> 242 ;
243 [label="mse = 0.0\nsamples = 1\nvalue = 13.364"] ;
242 -> 243 ;
244 [label="mse = -0.0\nsamples = 1\nvalue = 14.479"] ;
242 -> 244 ;
245 [label="X[3] <= 46.5\nmse = 47.753\nsamples = 6\nvalue = 23.2"] ;
199 -> 245 ;
246 [label="X[3] <= 38.0\nmse = 19.361\nsamples = 5\nvalue = 25.715"] ;
245 -> 246 ;
247 [label="X[2] <= 1.5\nmse = 3.224\nsamples = 3\nvalue = 22.308"] ;
246 -> 247 ;
248 [label="mse = 0.0\nsamples = 1\nvalue = 19.782"] ;
247 -> 248 ;
249 [label="X[1] <= 78.5\nmse = 0.049\nsamples = 2\nvalue = 23.572"] ;
247 -> 249 ;
250 [label="mse = 0.0\nsamples = 1\nvalue = 23.35"] ;
249 -> 250 ;
251 [label="mse = 0.0\nsamples = 1\nvalue = 23.793"] ;
249 -> 251 ;
252 [label="X[9] <= 100.0\nmse = 0.041\nsamples = 2\nvalue = 30.825"] ;
246 -> 252 ;
253 [label="mse = 0.0\nsamples = 1\nvalue = 31.029"] ;
252 -> 253 ;
254 [label="mse = 0.0\nsamples = 1\nvalue = 30.622"] ;
252 -> 254 ;
255 [label="mse = -0.0\nsamples = 1\nvalue = 10.627"] ;
245 -> 255 ;
256 [label="X[9] <= 119.5\nmse = 338.796\nsamples = 106\nvalue = 35.579"] ;
2 -> 256 ;
257 [label="X[9] <= 32.5\nmse = 289.325\nsamples = 49\nvalue = 48.498"] ;
256 -> 257 ;
258 [label="X[1] <= 135.0\nmse = 214.893\nsamples = 12\nvalue = 65.924"] ;
257 -> 258 ;
259 [label="X[3] <= 22.5\nmse = 96.501\nsamples = 9\nvalue = 59.319"] ;
258 -> 259 ;
260 [label="X[4] <= 7.5\nmse = 9.738\nsamples = 2\nvalue = 72.286"] ;
259 -> 260 ;
261 [label="mse = 0.0\nsamples = 1\nvalue = 69.165"] ;
260 -> 261 ;
262 [label="mse = -0.0\nsamples = 1\nvalue = 75.406"] ;
260 -> 262 ;
263 [label="X[0] <= 161.0\nmse = 59.531\nsamples = 7\nvalue = 55.615"] ;
259 -> 263 ;
264 [label="X[7] <= 0.5\nmse = 22.596\nsamples = 2\nvalue = 45.945"] ;
263 -> 264 ;
265 [label="mse = 0.0\nsamples = 1\nvalue = 50.699"] ;
264 -> 265 ;
266 [label="mse = 0.0\nsamples = 1\nvalue = 41.192"] ;
264 -> 266 ;
267 [label="X[1] <= 129.0\nmse = 21.95\nsamples = 5\nvalue = 59.482"] ;
263 -> 267 ;
268 [label="X[0] <= 164.5\nmse = 2.238\nsamples = 4\nvalue = 57.237"] ;
267 -> 268 ;
269 [label="mse = 0.0\nsamples = 1\nvalue = 54.663"] ;
268 -> 269 ;
270 [label="X[4] <= 9.0\nmse = 0.039\nsamples = 3\nvalue = 58.095"] ;
268 -> 270 ;
271 [label="X[2] <= 3.0\nmse = 0.009\nsamples = 2\nvalue = 57.968"] ;
270 -> 271 ;
272 [label="mse = 0.0\nsamples = 1\nvalue = 58.063"] ;
271 -> 272 ;
273 [label="mse = 0.0\nsamples = 1\nvalue = 57.872"] ;
271 -> 273 ;
274 [label="mse = 0.0\nsamples = 1\nvalue = 58.351"] ;
270 -> 274 ;
275 [label="mse = -0.0\nsamples = 1\nvalue = 68.462"] ;
267 -> 275 ;
276 [label="X[1] <= 147.5\nmse = 46.592\nsamples = 3\nvalue = 85.738"] ;
258 -> 276 ;
277 [label="X[9] <= 1.5\nmse = 2.693\nsamples = 2\nvalue = 90.471"] ;
276 -> 277 ;
278 [label="mse = 0.0\nsamples = 1\nvalue = 92.112"] ;
277 -> 278 ;
279 [label="mse = -0.0\nsamples = 1\nvalue = 88.83"] ;
277 -> 279 ;
280 [label="mse = 0.0\nsamples = 1\nvalue = 76.273"] ;
276 -> 280 ;
281 [label="X[0] <= 210.0\nmse = 183.042\nsamples = 37\nvalue = 42.847"] ;
257 -> 281 ;
282 [label="X[0] <= 156.0\nmse = 104.646\nsamples = 19\nvalue = 33.334"] ;
281 -> 282 ;
283 [label="X[9] <= 81.0\nmse = 85.768\nsamples = 5\nvalue = 22.837"] ;
282 -> 283 ;
284 [label="X[9] <= 50.5\nmse = 24.213\nsamples = 3\nvalue = 29.718"] ;
283 -> 284 ;
285 [label="mse = 0.0\nsamples = 1\nvalue = 36.472"] ;
284 -> 285 ;
286 [label="X[1] <= 117.0\nmse = 2.11\nsamples = 2\nvalue = 26.342"] ;
284 -> 286 ;
287 [label="mse = 0.0\nsamples = 1\nvalue = 27.794"] ;
286 -> 287 ;
288 [label="mse = 0.0\nsamples = 1\nvalue = 24.889"] ;
286 -> 288 ;
289 [label="X[7] <= 0.5\nmse = 0.518\nsamples = 2\nvalue = 12.515"] ;
283 -> 289 ;
290 [label="mse = 0.0\nsamples = 1\nvalue = 11.795"] ;
289 -> 290 ;
291 [label="mse = -0.0\nsamples = 1\nvalue = 13.234"] ;
289 -> 291 ;
292 [label="X[9] <= 40.5\nmse = 57.981\nsamples = 14\nvalue = 37.083"] ;
282 -> 292 ;
293 [label="mse = 0.0\nsamples = 1\nvalue = 55.054"] ;
292 -> 293 ;
294 [label="X[9] <= 90.0\nmse = 35.686\nsamples = 13\nvalue = 35.7"] ;
292 -> 294 ;
295 [label="X[3] <= 57.0\nmse = 16.023\nsamples = 8\nvalue = 38.68"] ;
294 -> 295 ;
296 [label="X[0] <= 188.0\nmse = 6.323\nsamples = 7\nvalue = 39.904"] ;
295 -> 296 ;
297 [label="X[4] <= 12.0\nmse = 2.916\nsamples = 5\nvalue = 38.661"] ;
296 -> 297 ;
298 [label="X[5] <= 0.5\nmse = 1.344\nsamples = 3\nvalue = 37.525"] ;
297 -> 298 ;
299 [label="mse = 0.0\nsamples = 1\nvalue = 39.145"] ;
298 -> 299 ;
300 [label="X[0] <= 173.5\nmse = 0.048\nsamples = 2\nvalue = 36.715"] ;
298 -> 300 ;
301 [label="mse = 0.0\nsamples = 1\nvalue = 36.934"] ;
300 -> 301 ;
302 [label="mse = -0.0\nsamples = 1\nvalue = 36.496"] ;
300 -> 302 ;
303 [label="X[2] <= 1.5\nmse = 0.436\nsamples = 2\nvalue = 40.365"] ;
297 -> 303 ;
304 [label="mse = 0.0\nsamples = 1\nvalue = 39.705"] ;
303 -> 304 ;
305 [label="mse = 0.0\nsamples = 1\nvalue = 41.025"] ;
303 -> 305 ;
306 [label="X[8] <= 1.5\nmse = 1.311\nsamples = 2\nvalue = 43.013"] ;
296 -> 306 ;
307 [label="mse = 0.0\nsamples = 1\nvalue = 44.158"] ;
306 -> 307 ;
308 [label="mse = -0.0\nsamples = 1\nvalue = 41.868"] ;
306 -> 308 ;
309 [label="mse = -0.0\nsamples = 1\nvalue = 30.111"] ;
295 -> 309 ;
310 [label="X[0] <= 195.5\nmse = 30.205\nsamples = 5\nvalue = 30.932"] ;
294 -> 310 ;
311 [label="X[9] <= 102.0\nmse = 9.495\nsamples = 4\nvalue = 28.555"] ;
310 -> 311 ;
312 [label="X[4] <= 6.5\nmse = 2.064\nsamples = 3\nvalue = 30.182"] ;
311 -> 312 ;
313 [label="mse = 0.0\nsamples = 1\nvalue = 28.316"] ;
312 -> 313 ;
314 [label="X[2] <= 2.0\nmse = 0.484\nsamples = 2\nvalue = 31.116"] ;
312 -> 314 ;
315 [label="mse = 0.0\nsamples = 1\nvalue = 30.42"] ;
314 -> 315 ;
316 [label="mse = 0.0\nsamples = 1\nvalue = 31.811"] ;
314 -> 316 ;
317 [label="mse = -0.0\nsamples = 1\nvalue = 23.672"] ;
311 -> 317 ;
318 [label="mse = -0.0\nsamples = 1\nvalue = 40.442"] ;
310 -> 318 ;
319 [label="X[9] <= 84.0\nmse = 69.44\nsamples = 18\nvalue = 52.888"] ;
281 -> 319 ;
320 [label="X[1] <= 150.5\nmse = 28.204\nsamples = 6\nvalue = 61.136"] ;
319 -> 320 ;
321 [label="X[1] <= 147.0\nmse = 7.439\nsamples = 3\nvalue = 56.318"] ;
320 -> 321 ;
322 [label="X[5] <= 0.5\nmse = 1.776\nsamples = 2\nvalue = 54.549"] ;
321 -> 322 ;
323 [label="mse = 0.0\nsamples = 1\nvalue = 55.882"] ;
322 -> 323 ;
324 [label="mse = 0.0\nsamples = 1\nvalue = 53.217"] ;
322 -> 324 ;
325 [label="mse = 0.0\nsamples = 1\nvalue = 59.855"] ;
321 -> 325 ;
326 [label="X[3] <= 33.0\nmse = 2.55\nsamples = 3\nvalue = 65.953"] ;
320 -> 326 ;
327 [label="X[0] <= 235.5\nmse = 0.873\nsamples = 2\nvalue = 64.962"] ;
326 -> 327 ;
328 [label="mse = 0.0\nsamples = 1\nvalue = 65.896"] ;
327 -> 328 ;
329 [label="mse = 0.0\nsamples = 1\nvalue = 64.027"] ;
327 -> 329 ;
330 [label="mse = -0.0\nsamples = 1\nvalue = 67.937"] ;
326 -> 330 ;
331 [label="X[1] <= 160.5\nmse = 39.041\nsamples = 12\nvalue = 48.764"] ;
319 -> 331 ;
332 [label="X[9] <= 100.0\nmse = 2.336\nsamples = 5\nvalue = 42.797"] ;
331 -> 332 ;
333 [label="X[9] <= 89.0\nmse = 0.21\nsamples = 2\nvalue = 44.52"] ;
332 -> 333 ;
334 [label="mse = 0.0\nsamples = 1\nvalue = 44.061"] ;
333 -> 334 ;
335 [label="mse = -0.0\nsamples = 1\nvalue = 44.978"] ;
333 -> 335 ;
336 [label="X[0] <= 222.5\nmse = 0.457\nsamples = 3\nvalue = 41.649"] ;
332 -> 336 ;
337 [label="mse = 0.0\nsamples = 1\nvalue = 42.529"] ;
336 -> 337 ;
338 [label="X[8] <= 1.0\nmse = 0.105\nsamples = 2\nvalue = 41.208"] ;
336 -> 338 ;
339 [label="mse = 0.0\nsamples = 1\nvalue = 40.885"] ;
338 -> 339 ;
340 [label="mse = -0.0\nsamples = 1\nvalue = 41.532"] ;
338 -> 340 ;
341 [label="X[9] <= 101.0\nmse = 21.657\nsamples = 7\nvalue = 53.027"] ;
331 -> 341 ;
342 [label="X[4] <= 6.0\nmse = 2.628\nsamples = 2\nvalue = 58.958"] ;
341 -> 342 ;
343 [label="mse = 0.0\nsamples = 1\nvalue = 57.337"] ;
342 -> 343 ;
344 [label="mse = -0.0\nsamples = 1\nvalue = 60.579"] ;
342 -> 344 ;
345 [label="X[4] <= 9.0\nmse = 9.567\nsamples = 5\nvalue = 50.654"] ;
341 -> 345 ;
346 [label="X[0] <= 236.5\nmse = 1.531\nsamples = 2\nvalue = 47.34"] ;
345 -> 346 ;
347 [label="mse = 0.0\nsamples = 1\nvalue = 48.577"] ;
346 -> 347 ;
348 [label="mse = -0.0\nsamples = 1\nvalue = 46.102"] ;
346 -> 348 ;
349 [label="X[9] <= 114.5\nmse = 2.718\nsamples = 3\nvalue = 52.864"] ;
345 -> 349 ;
350 [label="X[2] <= 2.0\nmse = 0.029\nsamples = 2\nvalue = 51.702"] ;
349 -> 350 ;
351 [label="mse = 0.0\nsamples = 1\nvalue = 51.532"] ;
350 -> 351 ;
352 [label="mse = 0.0\nsamples = 1\nvalue = 51.872"] ;
350 -> 352 ;
353 [label="mse = 0.0\nsamples = 1\nvalue = 55.187"] ;
349 -> 353 ;
354 [label="X[0] <= 232.5\nmse = 114.5\nsamples = 57\nvalue = 24.473"] ;
256 -> 354 ;
355 [label="X[6] <= 0.5\nmse = 59.572\nsamples = 26\nvalue = 19.798"] ;
354 -> 355 ;
356 [label="X[0] <= 184.5\nmse = 26.412\nsamples = 20\nvalue = 18.002"] ;
355 -> 356 ;
357 [label="X[3] <= 5.5\nmse = 1.707\nsamples = 4\nvalue = 12.231"] ;
356 -> 357 ;
358 [label="mse = 0.0\nsamples = 1\nvalue = 14.09"] ;
357 -> 358 ;
359 [label="X[4] <= 4.5\nmse = 0.74\nsamples = 3\nvalue = 11.611"] ;
357 -> 359 ;
360 [label="mse = 0.0\nsamples = 1\nvalue = 10.403"] ;
359 -> 360 ;
361 [label="X[1] <= 125.5\nmse = 0.014\nsamples = 2\nvalue = 12.215"] ;
359 -> 361 ;
362 [label="mse = 0.0\nsamples = 1\nvalue = 12.096"] ;
361 -> 362 ;
363 [label="mse = 0.0\nsamples = 1\nvalue = 12.335"] ;
361 -> 363 ;
364 [label="X[9] <= 136.0\nmse = 22.179\nsamples = 16\nvalue = 19.445"] ;
356 -> 364 ;
365 [label="X[9] <= 124.5\nmse = 3.504\nsamples = 5\nvalue = 24.58"] ;
364 -> 365 ;
366 [label="X[2] <= 3.5\nmse = 1.133\nsamples = 2\nvalue = 26.447"] ;
365 -> 366 ;
367 [label="mse = 0.0\nsamples = 1\nvalue = 25.383"] ;
366 -> 367 ;
368 [label="mse = 0.0\nsamples = 1\nvalue = 27.512"] ;
366 -> 368 ;
369 [label="X[4] <= 11.0\nmse = 1.209\nsamples = 3\nvalue = 23.335"] ;
365 -> 369 ;
370 [label="X[2] <= 2.0\nmse = 0.015\nsamples = 2\nvalue = 24.11"] ;
369 -> 370 ;
371 [label="mse = 0.0\nsamples = 1\nvalue = 24.23"] ;
370 -> 371 ;
372 [label="mse = -0.0\nsamples = 1\nvalue = 23.989"] ;
370 -> 372 ;
373 [label="mse = -0.0\nsamples = 1\nvalue = 21.786"] ;
369 -> 373 ;
374 [label="X[9] <= 177.0\nmse = 13.235\nsamples = 11\nvalue = 17.111"] ;
364 -> 374 ;
375 [label="X[3] <= 48.0\nmse = 8.199\nsamples = 9\nvalue = 18.311"] ;
374 -> 375 ;
376 [label="X[0] <= 210.5\nmse = 3.083\nsamples = 8\nvalue = 17.485"] ;
375 -> 376 ;
377 [label="X[9] <= 145.5\nmse = 3.14\nsamples = 4\nvalue = 16.518"] ;
376 -> 377 ;
378 [label="mse = 0.0\nsamples = 1\nvalue = 19.529"] ;
377 -> 378 ;
379 [label="X[0] <= 198.5\nmse = 0.158\nsamples = 3\nvalue = 15.514"] ;
377 -> 379 ;
380 [label="mse = 0.0\nsamples = 1\nvalue = 14.956"] ;
379 -> 380 ;
381 [label="X[4] <= 8.0\nmse = 0.003\nsamples = 2\nvalue = 15.793"] ;
379 -> 381 ;
382 [label="mse = 0.0\nsamples = 1\nvalue = 15.846"] ;
381 -> 382 ;
383 [label="mse = 0.0\nsamples = 1\nvalue = 15.741"] ;
381 -> 383 ;
384 [label="X[0] <= 222.0\nmse = 1.158\nsamples = 4\nvalue = 18.451"] ;
376 -> 384 ;
385 [label="X[3] <= 25.5\nmse = 0.021\nsamples = 2\nvalue = 19.492"] ;
384 -> 385 ;
386 [label="mse = 0.0\nsamples = 1\nvalue = 19.349"] ;
385 -> 386 ;
387 [label="mse = 0.0\nsamples = 1\nvalue = 19.636"] ;
385 -> 387 ;
388 [label="X[1] <= 150.5\nmse = 0.126\nsamples = 2\nvalue = 17.41"] ;
384 -> 388 ;
389 [label="mse = 0.0\nsamples = 1\nvalue = 17.765"] ;
388 -> 389 ;
390 [label="mse = 0.0\nsamples = 1\nvalue = 17.055"] ;
388 -> 390 ;
391 [label="mse = -0.0\nsamples = 1\nvalue = 24.919"] ;
375 -> 391 ;
392 [label="X[1] <= 161.5\nmse = 0.276\nsamples = 2\nvalue = 11.712"] ;
374 -> 392 ;
393 [label="mse = 0.0\nsamples = 1\nvalue = 11.187"] ;
392 -> 393 ;
394 [label="mse = 0.0\nsamples = 1\nvalue = 12.238"] ;
392 -> 394 ;
395 [label="X[9] <= 236.0\nmse = 123.511\nsamples = 6\nvalue = 25.785"] ;
355 -> 395 ;
396 [label="X[7] <= 0.5\nmse = 30.804\nsamples = 3\nvalue = 35.862"] ;
395 -> 396 ;
397 [label="X[4] <= 10.5\nmse = 2.691\nsamples = 2\nvalue = 32.054"] ;
396 -> 397 ;
398 [label="mse = 0.0\nsamples = 1\nvalue = 30.413"] ;
397 -> 398 ;
399 [label="mse = 0.0\nsamples = 1\nvalue = 33.694"] ;
397 -> 399 ;
400 [label="mse = 0.0\nsamples = 1\nvalue = 43.479"] ;
396 -> 400 ;
401 [label="X[9] <= 249.5\nmse = 13.127\nsamples = 3\nvalue = 15.708"] ;
395 -> 401 ;
402 [label="mse = 0.0\nsamples = 1\nvalue = 10.842"] ;
401 -> 402 ;
403 [label="X[1] <= 148.5\nmse = 1.932\nsamples = 2\nvalue = 18.141"] ;
401 -> 403 ;
404 [label="mse = 0.0\nsamples = 1\nvalue = 16.751"] ;
403 -> 404 ;
405 [label="mse = 0.0\nsamples = 1\nvalue = 19.531"] ;
403 -> 405 ;
406 [label="X[9] <= 169.0\nmse = 126.867\nsamples = 31\nvalue = 28.394"] ;
354 -> 406 ;
407 [label="X[0] <= 242.5\nmse = 27.603\nsamples = 9\nvalue = 40.589"] ;
406 -> 407 ;
408 [label="X[9] <= 145.0\nmse = 1.767\nsamples = 3\nvalue = 35.029"] ;
407 -> 408 ;
409 [label="X[5] <= 0.5\nmse = 0.181\nsamples = 2\nvalue = 35.936"] ;
408 -> 409 ;
410 [label="mse = 0.0\nsamples = 1\nvalue = 36.362"] ;
409 -> 410 ;
411 [label="mse = 0.0\nsamples = 1\nvalue = 35.51"] ;
409 -> 411 ;
412 [label="mse = -0.0\nsamples = 1\nvalue = 33.214"] ;
408 -> 412 ;
413 [label="X[3] <= 19.0\nmse = 17.337\nsamples = 6\nvalue = 43.369"] ;
407 -> 413 ;
414 [label="X[0] <= 262.5\nmse = 0.621\nsamples = 2\nvalue = 49.006"] ;
413 -> 414 ;
415 [label="mse = 0.0\nsamples = 1\nvalue = 48.218"] ;
414 -> 415 ;
416 [label="mse = 0.0\nsamples = 1\nvalue = 49.794"] ;
414 -> 416 ;
417 [label="X[4] <= 11.0\nmse = 1.859\nsamples = 4\nvalue = 40.55"] ;
413 -> 417 ;
418 [label="X[8] <= 1.5\nmse = 0.246\nsamples = 2\nvalue = 41.861"] ;
417 -> 418 ;
419 [label="mse = 0.0\nsamples = 1\nvalue = 42.357"] ;
418 -> 419 ;
420 [label="mse = -0.0\nsamples = 1\nvalue = 41.365"] ;
418 -> 420 ;
421 [label="X[8] <= 1.0\nmse = 0.034\nsamples = 2\nvalue = 39.238"] ;
417 -> 421 ;
422 [label="mse = 0.0\nsamples = 1\nvalue = 39.422"] ;
421 -> 422 ;
423 [label="mse = -0.0\nsamples = 1\nvalue = 39.055"] ;
421 -> 423 ;
424 [label="X[3] <= 46.0\nmse = 81.751\nsamples = 22\nvalue = 23.405"] ;
406 -> 424 ;
425 [label="X[9] <= 202.5\nmse = 34.684\nsamples = 18\nvalue = 21.415"] ;
424 -> 425 ;
426 [label="X[8] <= 1.5\nmse = 22.141\nsamples = 9\nvalue = 25.582"] ;
425 -> 426 ;
427 [label="X[0] <= 252.0\nmse = 10.452\nsamples = 5\nvalue = 22.379"] ;
426 -> 427 ;
428 [label="mse = 0.0\nsamples = 1\nvalue = 16.711"] ;
427 -> 428 ;
429 [label="X[0] <= 272.5\nmse = 3.027\nsamples = 4\nvalue = 23.796"] ;
427 -> 429 ;
430 [label="X[2] <= 3.5\nmse = 1.022\nsamples = 3\nvalue = 22.928"] ;
429 -> 430 ;
431 [label="X[4] <= 10.5\nmse = 0.111\nsamples = 2\nvalue = 23.616"] ;
430 -> 431 ;
432 [label="mse = 0.0\nsamples = 1\nvalue = 23.283"] ;
431 -> 432 ;
433 [label="mse = 0.0\nsamples = 1\nvalue = 23.949"] ;
431 -> 433 ;
434 [label="mse = -0.0\nsamples = 1\nvalue = 21.551"] ;
430 -> 434 ;
435 [label="mse = 0.0\nsamples = 1\nvalue = 26.4"] ;
429 -> 435 ;
436 [label="X[0] <= 277.0\nmse = 7.887\nsamples = 4\nvalue = 29.587"] ;
426 -> 436 ;
437 [label="X[9] <= 174.5\nmse = 1.294\nsamples = 3\nvalue = 28.068"] ;
436 -> 437 ;
438 [label="mse = 0.0\nsamples = 1\nvalue = 29.567"] ;
437 -> 438 ;
439 [label="X[1] <= 174.0\nmse = 0.256\nsamples = 2\nvalue = 27.319"] ;
437 -> 439 ;
440 [label="mse = 0.0\nsamples = 1\nvalue = 27.825"] ;
439 -> 440 ;
441 [label="mse = -0.0\nsamples = 1\nvalue = 26.813"] ;
439 -> 441 ;
442 [label="mse = 0.0\nsamples = 1\nvalue = 34.142"] ;
436 -> 442 ;
443 [label="X[4] <= 4.5\nmse = 12.497\nsamples = 9\nvalue = 17.248"] ;
425 -> 443 ;
444 [label="X[8] <= 1.5\nmse = 9.373\nsamples = 2\nvalue = 21.763"] ;
443 -> 444 ;
445 [label="mse = 0.0\nsamples = 1\nvalue = 18.701"] ;
444 -> 445 ;
446 [label="mse = -0.0\nsamples = 1\nvalue = 24.824"] ;
444 -> 446 ;
447 [label="X[2] <= 3.5\nmse = 5.903\nsamples = 7\nvalue = 15.958"] ;
443 -> 447 ;
448 [label="X[0] <= 264.0\nmse = 1.994\nsamples = 6\nvalue = 15.122"] ;
447 -> 448 ;
449 [label="X[0] <= 262.5\nmse = 2.217\nsamples = 3\nvalue = 14.29"] ;
448 -> 449 ;
450 [label="X[2] <= 1.5\nmse = 0.802\nsamples = 2\nvalue = 15.208"] ;
449 -> 450 ;
451 [label="mse = 0.0\nsamples = 1\nvalue = 14.312"] ;
450 -> 451 ;
452 [label="mse = 0.0\nsamples = 1\nvalue = 16.103"] ;
450 -> 452 ;
453 [label="mse = 0.0\nsamples = 1\nvalue = 12.456"] ;
449 -> 453 ;
454 [label="X[0] <= 274.0\nmse = 0.388\nsamples = 3\nvalue = 15.954"] ;
448 -> 454 ;
455 [label="X[0] <= 266.5\nmse = 0.008\nsamples = 2\nvalue = 16.392"] ;
454 -> 455 ;
456 [label="mse = 0.0\nsamples = 1\nvalue = 16.479"] ;
455 -> 456 ;
457 [label="mse = 0.0\nsamples = 1\nvalue = 16.304"] ;
455 -> 457 ;
458 [label="mse = 0.0\nsamples = 1\nvalue = 15.079"] ;
454 -> 458 ;
459 [label="mse = -0.0\nsamples = 1\nvalue = 20.974"] ;
447 -> 459 ;
460 [label="X[6] <= 0.5\nmse = 195.541\nsamples = 4\nvalue = 32.36"] ;
424 -> 460 ;
461 [label="X[8] <= 1.0\nmse = 6.941\nsamples = 3\nvalue = 24.395"] ;
460 -> 461 ;
462 [label="X[0] <= 273.5\nmse = 1.474\nsamples = 2\nvalue = 22.669"] ;
461 -> 462 ;
463 [label="mse = 0.0\nsamples = 1\nvalue = 23.883"] ;
462 -> 463 ;
464 [label="mse = 0.0\nsamples = 1\nvalue = 21.455"] ;
462 -> 464 ;
465 [label="mse = 0.0\nsamples = 1\nvalue = 27.847"] ;
461 -> 465 ;
466 [label="mse = 0.0\nsamples = 1\nvalue = 56.256"] ;
460 -> 466 ;
467 [label="X[9] <= 174.5\nmse = 469.57\nsamples = 52\nvalue = 58.764"] ;
1 -> 467 ;
468 [label="X[1] <= 216.5\nmse = 331.231\nsamples = 15\nvalue = 81.664"] ;
467 -> 468 ;
469 [label="X[9] <= 94.0\nmse = 259.675\nsamples = 9\nvalue = 72.234"] ;
468 -> 469 ;
470 [label="X[9] <= 59.0\nmse = 90.117\nsamples = 2\nvalue = 98.493"] ;
469 -> 470 ;
471 [label="mse = 0.0\nsamples = 1\nvalue = 107.986"] ;
470 -> 471 ;
472 [label="mse = 0.0\nsamples = 1\nvalue = 89.0"] ;
470 -> 472 ;
473 [label="X[3] <= 32.0\nmse = 54.823\nsamples = 7\nvalue = 64.732"] ;
469 -> 473 ;
474 [label="X[3] <= 12.5\nmse = 29.486\nsamples = 3\nvalue = 71.347"] ;
473 -> 474 ;
475 [label="mse = 0.0\nsamples = 1\nvalue = 63.931"] ;
474 -> 475 ;
476 [label="X[7] <= 0.5\nmse = 2.984\nsamples = 2\nvalue = 75.054"] ;
474 -> 476 ;
477 [label="mse = 0.0\nsamples = 1\nvalue = 73.327"] ;
476 -> 477 ;
478 [label="mse = 0.0\nsamples = 1\nvalue = 76.782"] ;
476 -> 478 ;
479 [label="X[3] <= 58.0\nmse = 16.392\nsamples = 4\nvalue = 59.77"] ;
473 -> 479 ;
480 [label="X[3] <= 45.5\nmse = 4.748\nsamples = 3\nvalue = 61.838"] ;
479 -> 480 ;
481 [label="mse = 0.0\nsamples = 1\nvalue = 58.929"] ;
480 -> 481 ;
482 [label="X[2] <= 0.5\nmse = 0.774\nsamples = 2\nvalue = 63.293"] ;
480 -> 482 ;
483 [label="mse = 0.0\nsamples = 1\nvalue = 64.173"] ;
482 -> 483 ;
484 [label="mse = -0.0\nsamples = 1\nvalue = 62.413"] ;
482 -> 484 ;
485 [label="mse = 0.0\nsamples = 1\nvalue = 53.566"] ;
479 -> 485 ;
486 [label="X[2] <= 2.0\nmse = 105.105\nsamples = 6\nvalue = 95.809"] ;
468 -> 486 ;
487 [label="X[9] <= 164.0\nmse = 12.985\nsamples = 4\nvalue = 89.122"] ;
486 -> 487 ;
488 [label="X[3] <= 27.0\nmse = 0.338\nsamples = 2\nvalue = 92.458"] ;
487 -> 488 ;
489 [label="mse = 0.0\nsamples = 1\nvalue = 91.876"] ;
488 -> 489 ;
490 [label="mse = 0.0\nsamples = 1\nvalue = 93.039"] ;
488 -> 490 ;
491 [label="X[4] <= 9.0\nmse = 3.38\nsamples = 2\nvalue = 85.786"] ;
487 -> 491 ;
492 [label="mse = 0.0\nsamples = 1\nvalue = 87.625"] ;
491 -> 492 ;
493 [label="mse = 0.0\nsamples = 1\nvalue = 83.948"] ;
491 -> 493 ;
494 [label="X[3] <= 47.0\nmse = 21.064\nsamples = 2\nvalue = 109.182"] ;
486 -> 494 ;
495 [label="mse = 0.0\nsamples = 1\nvalue = 113.772"] ;
494 -> 495 ;
496 [label="mse = -0.0\nsamples = 1\nvalue = 104.593"] ;
494 -> 496 ;
497 [label="X[0] <= 319.0\nmse = 226.861\nsamples = 37\nvalue = 49.48"] ;
467 -> 497 ;
498 [label="X[9] <= 198.0\nmse = 90.066\nsamples = 21\nvalue = 39.886"] ;
497 -> 498 ;
499 [label="X[3] <= 53.0\nmse = 55.115\nsamples = 6\nvalue = 49.365"] ;
498 -> 499 ;
500 [label="X[0] <= 311.0\nmse = 14.269\nsamples = 5\nvalue = 52.305"] ;
499 -> 500 ;
501 [label="X[4] <= 10.5\nmse = 7.106\nsamples = 4\nvalue = 50.84"] ;
500 -> 501 ;
502 [label="X[4] <= 7.0\nmse = 8.401\nsamples = 2\nvalue = 52.468"] ;
501 -> 502 ;
503 [label="mse = 0.0\nsamples = 1\nvalue = 49.57"] ;
502 -> 503 ;
504 [label="mse = -0.0\nsamples = 1\nvalue = 55.367"] ;
502 -> 504 ;
505 [label="X[4] <= 11.5\nmse = 0.511\nsamples = 2\nvalue = 49.213"] ;
501 -> 505 ;
506 [label="mse = 0.0\nsamples = 1\nvalue = 48.498"] ;
505 -> 506 ;
507 [label="mse = -0.0\nsamples = 1\nvalue = 49.927"] ;
505 -> 507 ;
508 [label="mse = 0.0\nsamples = 1\nvalue = 58.165"] ;
500 -> 508 ;
509 [label="mse = 0.0\nsamples = 1\nvalue = 34.664"] ;
499 -> 509 ;
510 [label="X[1] <= 214.5\nmse = 53.724\nsamples = 15\nvalue = 36.094"] ;
498 -> 510 ;
511 [label="X[1] <= 190.5\nmse = 35.913\nsamples = 12\nvalue = 33.68"] ;
510 -> 511 ;
512 [label="mse = 0.0\nsamples = 1\nvalue = 20.191"] ;
511 -> 512 ;
513 [label="X[9] <= 246.0\nmse = 21.133\nsamples = 11\nvalue = 34.906"] ;
511 -> 513 ;
514 [label="X[3] <= 15.0\nmse = 9.426\nsamples = 9\nvalue = 33.254"] ;
513 -> 514 ;
515 [label="X[7] <= 0.5\nmse = 7.014\nsamples = 4\nvalue = 30.827"] ;
514 -> 515 ;
516 [label="mse = 0.0\nsamples = 1\nvalue = 34.48"] ;
515 -> 516 ;
517 [label="X[2] <= 2.5\nmse = 3.422\nsamples = 3\nvalue = 29.61"] ;
515 -> 517 ;
518 [label="X[0] <= 295.5\nmse = 1.235\nsamples = 2\nvalue = 30.75"] ;
517 -> 518 ;
519 [label="mse = 0.0\nsamples = 1\nvalue = 29.638"] ;
518 -> 519 ;
520 [label="mse = -0.0\nsamples = 1\nvalue = 31.861"] ;
518 -> 520 ;
521 [label="mse = 0.0\nsamples = 1\nvalue = 27.33"] ;
517 -> 521 ;
522 [label="X[1] <= 204.5\nmse = 2.874\nsamples = 5\nvalue = 35.196"] ;
514 -> 522 ;
523 [label="X[1] <= 198.5\nmse = 0.16\nsamples = 2\nvalue = 33.256"] ;
522 -> 523 ;
524 [label="mse = 0.0\nsamples = 1\nvalue = 32.856"] ;
523 -> 524 ;
525 [label="mse = -0.0\nsamples = 1\nvalue = 33.657"] ;
523 -> 525 ;
526 [label="X[3] <= 33.0\nmse = 0.504\nsamples = 3\nvalue = 36.489"] ;
522 -> 526 ;
527 [label="mse = 0.0\nsamples = 1\nvalue = 35.61"] ;
526 -> 527 ;
528 [label="X[0] <= 306.0\nmse = 0.176\nsamples = 2\nvalue = 36.928"] ;
526 -> 528 ;
529 [label="mse = 0.0\nsamples = 1\nvalue = 37.348"] ;
528 -> 529 ;
530 [label="mse = 0.0\nsamples = 1\nvalue = 36.508"] ;
528 -> 530 ;
531 [label="X[3] <= 19.5\nmse = 6.29\nsamples = 2\nvalue = 42.339"] ;
513 -> 531 ;
532 [label="mse = 0.0\nsamples = 1\nvalue = 39.831"] ;
531 -> 532 ;
533 [label="mse = -0.0\nsamples = 1\nvalue = 44.847"] ;
531 -> 533 ;
534 [label="X[0] <= 315.5\nmse = 8.404\nsamples = 3\nvalue = 45.751"] ;
510 -> 534 ;
535 [label="mse = 0.0\nsamples = 1\nvalue = 42.079"] ;
534 -> 535 ;
536 [label="X[5] <= 0.5\nmse = 2.495\nsamples = 2\nvalue = 47.586"] ;
534 -> 536 ;
537 [label="mse = 0.0\nsamples = 1\nvalue = 46.007"] ;
536 -> 537 ;
538 [label="mse = 0.0\nsamples = 1\nvalue = 49.166"] ;
536 -> 538 ;
539 [label="X[9] <= 230.0\nmse = 127.021\nsamples = 16\nvalue = 62.072"] ;
497 -> 539 ;
540 [label="X[1] <= 220.0\nmse = 22.624\nsamples = 6\nvalue = 71.751"] ;
539 -> 540 ;
541 [label="mse = 0.0\nsamples = 1\nvalue = 62.602"] ;
540 -> 541 ;
542 [label="X[5] <= 0.5\nmse = 7.062\nsamples = 5\nvalue = 73.58"] ;
540 -> 542 ;
543 [label="X[3] <= 58.5\nmse = 0.537\nsamples = 2\nvalue = 70.676"] ;
542 -> 543 ;
544 [label="mse = 0.0\nsamples = 1\nvalue = 69.943"] ;
543 -> 544 ;
545 [label="mse = 0.0\nsamples = 1\nvalue = 71.408"] ;
543 -> 545 ;
546 [label="X[0] <= 338.5\nmse = 2.036\nsamples = 3\nvalue = 75.517"] ;
542 -> 546 ;
547 [label="X[2] <= 3.5\nmse = 0.451\nsamples = 2\nvalue = 74.586"] ;
546 -> 547 ;
548 [label="mse = 0.0\nsamples = 1\nvalue = 75.257"] ;
547 -> 548 ;
549 [label="mse = 0.0\nsamples = 1\nvalue = 73.914"] ;
547 -> 549 ;
550 [label="mse = 0.0\nsamples = 1\nvalue = 77.38"] ;
546 -> 550 ;
551 [label="X[4] <= 10.0\nmse = 99.736\nsamples = 10\nvalue = 56.265"] ;
539 -> 551 ;
552 [label="X[1] <= 230.5\nmse = 68.315\nsamples = 8\nvalue = 52.923"] ;
551 -> 552 ;
553 [label="X[2] <= 2.0\nmse = 22.52\nsamples = 3\nvalue = 43.687"] ;
552 -> 553 ;
554 [label="X[3] <= 41.5\nmse = 8.422\nsamples = 2\nvalue = 40.78"] ;
553 -> 554 ;
555 [label="mse = 0.0\nsamples = 1\nvalue = 43.682"] ;
554 -> 555 ;
556 [label="mse = -0.0\nsamples = 1\nvalue = 37.878"] ;
554 -> 556 ;
557 [label="mse = 0.0\nsamples = 1\nvalue = 49.502"] ;
553 -> 557 ;
558 [label="X[4] <= 8.0\nmse = 13.9\nsamples = 5\nvalue = 58.465"] ;
552 -> 558 ;
559 [label="X[1] <= 236.5\nmse = 5.027\nsamples = 4\nvalue = 60.037"] ;
558 -> 559 ;
560 [label="mse = 0.0\nsamples = 1\nvalue = 63.809"] ;
559 -> 560 ;
561 [label="X[9] <= 247.5\nmse = 0.377\nsamples = 3\nvalue = 58.779"] ;
559 -> 561 ;
562 [label="X[3] <= 43.5\nmse = 0.14\nsamples = 2\nvalue = 59.156"] ;
561 -> 562 ;
563 [label="mse = 0.0\nsamples = 1\nvalue = 59.53"] ;
562 -> 563 ;
564 [label="mse = -0.0\nsamples = 1\nvalue = 58.781"] ;
562 -> 564 ;
565 [label="mse = 0.0\nsamples = 1\nvalue = 58.026"] ;
561 -> 565 ;
566 [label="mse = -0.0\nsamples = 1\nvalue = 52.179"] ;
558 -> 566 ;
567 [label="X[2] <= 3.0\nmse = 2.038\nsamples = 2\nvalue = 69.634"] ;
551 -> 567 ;
568 [label="mse = 0.0\nsamples = 1\nvalue = 71.061"] ;
567 -> 568 ;
569 [label="mse = 0.0\nsamples = 1\nvalue = 68.206"] ;
567 -> 569 ;
570 [label="X[1] <= 260.5\nmse = 1278.681\nsamples = 35\nvalue = 121.515"] ;
0 -> 570 [labeldistance=2.5, labelangle=-45, headlabel="False"] ;
571 [label="X[9] <= 256.0\nmse = 474.348\nsamples = 17\nvalue = 93.35"] ;
570 -> 571 ;
572 [label="X[9] <= 167.5\nmse = 339.32\nsamples = 12\nvalue = 102.549"] ;
571 -> 572 ;
573 [label="X[0] <= 350.5\nmse = 62.459\nsamples = 3\nvalue = 123.671"] ;
572 -> 573 ;
574 [label="X[1] <= 247.0\nmse = 10.844\nsamples = 2\nvalue = 118.416"] ;
573 -> 574 ;
575 [label="mse = 0.0\nsamples = 1\nvalue = 115.123"] ;
574 -> 575 ;
576 [label="mse = 0.0\nsamples = 1\nvalue = 121.709"] ;
574 -> 576 ;
577 [label="mse = 0.0\nsamples = 1\nvalue = 134.181"] ;
573 -> 577 ;
578 [label="X[6] <= 0.5\nmse = 233.316\nsamples = 9\nvalue = 95.508"] ;
572 -> 578 ;
579 [label="X[9] <= 194.5\nmse = 99.502\nsamples = 7\nvalue = 88.945"] ;
578 -> 579 ;
580 [label="X[5] <= 0.5\nmse = 16.594\nsamples = 3\nvalue = 96.122"] ;
579 -> 580 ;
581 [label="mse = 0.0\nsamples = 1\nvalue = 101.788"] ;
580 -> 581 ;
582 [label="X[4] <= 12.0\nmse = 0.816\nsamples = 2\nvalue = 93.29"] ;
580 -> 582 ;
583 [label="mse = 0.0\nsamples = 1\nvalue = 94.193"] ;
582 -> 583 ;
584 [label="mse = 0.0\nsamples = 1\nvalue = 92.386"] ;
582 -> 584 ;
585 [label="X[0] <= 359.5\nmse = 94.065\nsamples = 4\nvalue = 83.562"] ;
579 -> 585 ;
586 [label="X[7] <= 0.5\nmse = 26.039\nsamples = 3\nvalue = 78.577"] ;
585 -> 586 ;
587 [label="X[0] <= 351.0\nmse = 3.402\nsamples = 2\nvalue = 82.024"] ;
586 -> 587 ;
588 [label="mse = 0.0\nsamples = 1\nvalue = 83.869"] ;
587 -> 588 ;
589 [label="mse = 0.0\nsamples = 1\nvalue = 80.18"] ;
587 -> 589 ;
590 [label="mse = 0.0\nsamples = 1\nvalue = 71.682"] ;
586 -> 590 ;
591 [label="mse = 0.0\nsamples = 1\nvalue = 98.515"] ;
585 -> 591 ;
592 [label="X[7] <= 0.5\nmse = 23.232\nsamples = 2\nvalue = 118.479"] ;
578 -> 592 ;
593 [label="mse = 0.0\nsamples = 1\nvalue = 123.299"] ;
592 -> 593 ;
594 [label="mse = 0.0\nsamples = 1\nvalue = 113.659"] ;
592 -> 594 ;
595 [label="X[2] <= 0.5\nmse = 107.902\nsamples = 5\nvalue = 71.272"] ;
571 -> 595 ;
596 [label="mse = 0.0\nsamples = 1\nvalue = 91.362"] ;
595 -> 596 ;
597 [label="X[1] <= 251.5\nmse = 8.749\nsamples = 4\nvalue = 66.25"] ;
595 -> 597 ;
598 [label="X[0] <= 352.0\nmse = 0.222\nsamples = 2\nvalue = 69.185"] ;
597 -> 598 ;
599 [label="mse = 0.0\nsamples = 1\nvalue = 68.713"] ;
598 -> 599 ;
600 [label="mse = -0.0\nsamples = 1\nvalue = 69.656"] ;
598 -> 600 ;
601 [label="X[1] <= 253.0\nmse = 0.048\nsamples = 2\nvalue = 63.314"] ;
597 -> 601 ;
602 [label="mse = 0.0\nsamples = 1\nvalue = 63.534"] ;
601 -> 602 ;
603 [label="mse = 0.0\nsamples = 1\nvalue = 63.095"] ;
601 -> 603 ;
604 [label="X[1] <= 279.5\nmse = 581.563\nsamples = 18\nvalue = 148.115"] ;
570 -> 604 ;
605 [label="X[9] <= 234.0\nmse = 398.725\nsamples = 15\nvalue = 141.068"] ;
604 -> 605 ;
606 [label="X[6] <= 0.5\nmse = 157.551\nsamples = 5\nvalue = 158.152"] ;
605 -> 606 ;
607 [label="X[0] <= 364.5\nmse = 42.557\nsamples = 4\nvalue = 152.596"] ;
606 -> 607 ;
608 [label="mse = 0.0\nsamples = 1\nvalue = 163.329"] ;
607 -> 608 ;
609 [label="X[2] <= 1.5\nmse = 5.542\nsamples = 3\nvalue = 149.018"] ;
607 -> 609 ;
610 [label="mse = 0.0\nsamples = 1\nvalue = 151.947"] ;
609 -> 610 ;
611 [label="X[5] <= 0.5\nmse = 1.878\nsamples = 2\nvalue = 147.554"] ;
609 -> 611 ;
612 [label="mse = 0.0\nsamples = 1\nvalue = 146.183"] ;
611 -> 612 ;
613 [label="mse = 0.0\nsamples = 1\nvalue = 148.924"] ;
611 -> 613 ;
614 [label="mse = -0.0\nsamples = 1\nvalue = 180.379"] ;
606 -> 614 ;
615 [label="X[1] <= 275.5\nmse = 300.41\nsamples = 10\nvalue = 132.526"] ;
605 -> 615 ;
616 [label="X[4] <= 10.0\nmse = 53.101\nsamples = 7\nvalue = 121.978"] ;
615 -> 616 ;
617 [label="X[3] <= 55.0\nmse = 14.742\nsamples = 2\nvalue = 111.68"] ;
616 -> 617 ;
618 [label="mse = 0.0\nsamples = 1\nvalue = 115.52"] ;
617 -> 618 ;
619 [label="mse = 0.0\nsamples = 1\nvalue = 107.841"] ;
617 -> 619 ;
620 [label="X[9] <= 274.5\nmse = 9.069\nsamples = 5\nvalue = 126.096"] ;
616 -> 620 ;
621 [label="X[0] <= 374.5\nmse = 3.878\nsamples = 3\nvalue = 128.119"] ;
620 -> 621 ;
622 [label="X[1] <= 270.0\nmse = 0.593\nsamples = 2\nvalue = 129.439"] ;
621 -> 622 ;
623 [label="mse = 0.0\nsamples = 1\nvalue = 128.669"] ;
622 -> 623 ;
624 [label="mse = 0.0\nsamples = 1\nvalue = 130.209"] ;
622 -> 624 ;
625 [label="mse = -0.0\nsamples = 1\nvalue = 125.48"] ;
621 -> 625 ;
626 [label="X[1] <= 272.0\nmse = 1.508\nsamples = 2\nvalue = 123.062"] ;
620 -> 626 ;
627 [label="mse = 0.0\nsamples = 1\nvalue = 124.29"] ;
626 -> 627 ;
628 [label="mse = -0.0\nsamples = 1\nvalue = 121.834"] ;
626 -> 628 ;
629 [label="X[8] <= 1.5\nmse = 12.019\nsamples = 3\nvalue = 157.139"] ;
615 -> 629 ;
630 [label="mse = 0.0\nsamples = 1\nvalue = 152.298"] ;
629 -> 630 ;
631 [label="X[0] <= 381.0\nmse = 0.45\nsamples = 2\nvalue = 159.56"] ;
629 -> 631 ;
632 [label="mse = 0.0\nsamples = 1\nvalue = 160.231"] ;
631 -> 632 ;
633 [label="mse = 0.0\nsamples = 1\nvalue = 158.889"] ;
631 -> 633 ;
634 [label="X[3] <= 26.5\nmse = 6.097\nsamples = 3\nvalue = 183.348"] ;
604 -> 634 ;
635 [label="mse = 0.0\nsamples = 1\nvalue = 186.634"] ;
634 -> 635 ;
636 [label="X[0] <= 384.5\nmse = 1.047\nsamples = 2\nvalue = 181.705"] ;
634 -> 636 ;
637 [label="mse = 0.0\nsamples = 1\nvalue = 180.682"] ;
636 -> 637 ;
638 [label="mse = 0.0\nsamples = 1\nvalue = 182.728"] ;
636 -> 638 ;
}